<?xml version="1.0"?>
<opencv_storage>
<stage8>
  <maxWeakCount>6</maxWeakCount>
  <stageThreshold>-3.8494434952735901e-01</stageThreshold>
  <weakClassifiers>
    <_>
      <internalNodes>
        0 -1 89819 1.4682556502521038e-03</internalNodes>
      <leafValues>
        2.6865673065185547e-01 -5.4545456171035767e-01</leafValues></_>
    <_>
      <internalNodes>
        0 -1 46128 7.3800131212919950e-04</internalNodes>
      <leafValues>
        -3.7224549055099487e-01 4.1232186555862427e-01</leafValues></_>
    <_>
      <internalNodes>
        0 -1 133929 -1.8774745985865593e-03</internalNodes>
      <leafValues>
        5.0889331102371216e-01 -3.4388807415962219e-01</leafValues></_>
    <_>
      <internalNodes>
        0 -1 13555 -2.0470079034566879e-03</internalNodes>
      <leafValues>
        -9.2011517286300659e-01 2.5371730327606201e-01</leafValues></_>
    <_>
      <internalNodes>
        0 -1 3156 8.4455130854621530e-04</internalNodes>
      <leafValues>
        -4.4135633111000061e-01 4.8816812038421631e-01</leafValues></_>
    <_>
      <internalNodes>
        0 -1 49311 -7.8288384247571230e-04</internalNodes>
      <leafValues>
        -5.3439581394195557e-01 3.7169015407562256e-01</leafValues></_></weakClassifiers></stage8>
</opencv_storage>
