<?xml version="1.0"?>
<opencv_storage>
<stage1>
  <maxWeakCount>6</maxWeakCount>
  <stageThreshold>-5.2484142780303955e-01</stageThreshold>
  <weakClassifiers>
    <_>
      <internalNodes>
        0 -1 81480 1.0400995612144470e-01</internalNodes>
      <leafValues>
        -2.6797387003898621e-01 8.7234044075012207e-01</leafValues></_>
    <_>
      <internalNodes>
        0 -1 67702 -2.2326058242470026e-03</internalNodes>
      <leafValues>
        4.5808207988739014e-01 -4.0656590461730957e-01</leafValues></_>
    <_>
      <internalNodes>
        0 -1 107825 -1.1425735801458359e-01</internalNodes>
      <leafValues>
        8.5236501693725586e-01 -2.6982903480529785e-01</leafValues></_>
    <_>
      <internalNodes>
        0 -1 13179 -1.0431495029479265e-03</internalNodes>
      <leafValues>
        -8.0116003751754761e-01 3.3379533886909485e-01</leafValues></_>
    <_>
      <internalNodes>
        0 -1 131870 -4.8054442740976810e-03</internalNodes>
      <leafValues>
        6.6480392217636108e-01 -3.9263877272605896e-01</leafValues></_>
    <_>
      <internalNodes>
        0 -1 43880 -1.3206833973526955e-02</internalNodes>
      <leafValues>
        6.4003664255142212e-01 -3.0876451730728149e-01</leafValues></_></weakClassifiers></stage1>
</opencv_storage>
