<?xml version="1.0"?>
<opencv_storage>
<stage7>
  <maxWeakCount>8</maxWeakCount>
  <stageThreshold>-7.6214498281478882e-01</stageThreshold>
  <weakClassifiers>
    <_>
      <internalNodes>
        0 -1 137693 -1.5892399474978447e-02</internalNodes>
      <leafValues>
        9.3333333730697632e-01 -1.6470588743686676e-01</leafValues></_>
    <_>
      <internalNodes>
        0 -1 132107 -3.3493775408715010e-03</internalNodes>
      <leafValues>
        7.9601305723190308e-01 -1.7486795783042908e-01</leafValues></_>
    <_>
      <internalNodes>
        0 -1 56731 3.9817062206566334e-03</internalNodes>
      <leafValues>
        -1.8931597471237183e-01 7.4870222806930542e-01</leafValues></_>
    <_>
      <internalNodes>
        0 -1 113711 4.0141250938177109e-02</internalNodes>
      <leafValues>
        2.2438868880271912e-01 -8.3417034149169922e-01</leafValues></_>
    <_>
      <internalNodes>
        0 -1 68202 -2.1114894188940525e-03</internalNodes>
      <leafValues>
        5.9777319431304932e-01 -3.2418766617774963e-01</leafValues></_>
    <_>
      <internalNodes>
        0 -1 120371 -1.0765014449134469e-03</internalNodes>
      <leafValues>
        4.8440903425216675e-01 -3.8821971416473389e-01</leafValues></_>
    <_>
      <internalNodes>
        0 -1 17395 -1.6382135450839996e-02</internalNodes>
      <leafValues>
        6.9298261404037476e-01 -2.7740654349327087e-01</leafValues></_>
    <_>
      <internalNodes>
        0 -1 107521 -4.0088896639645100e-03</internalNodes>
      <leafValues>
        6.1187326908111572e-01 -3.4045866131782532e-01</leafValues></_></weakClassifiers></stage7>
</opencv_storage>
