<?xml version="1.0"?>
<opencv_storage>
<stage6>
  <maxWeakCount>5</maxWeakCount>
  <stageThreshold>-2.6662379503250122e-01</stageThreshold>
  <weakClassifiers>
    <_>
      <internalNodes>
        0 -1 7582 7.4358885176479816e-03</internalNodes>
      <leafValues>
        -3.9655172824859619e-01 5.4761904478073120e-01</leafValues></_>
    <_>
      <internalNodes>
        0 -1 22228 3.8780295290052891e-04</internalNodes>
      <leafValues>
        -3.4226956963539124e-01 5.7605093717575073e-01</leafValues></_>
    <_>
      <internalNodes>
        0 -1 155235 4.7027174150571227e-04</internalNodes>
      <leafValues>
        2.7204939723014832e-01 -7.8390973806381226e-01</leafValues></_>
    <_>
      <internalNodes>
        0 -1 161927 -2.9300842434167862e-03</internalNodes>
      <leafValues>
        7.3900264501571655e-01 -2.7868866920471191e-01</leafValues></_>
    <_>
      <internalNodes>
        0 -1 121391 3.0173845589160919e-03</internalNodes>
      <leafValues>
        -3.2769536972045898e-01 6.8510019779205322e-01</leafValues></_></weakClassifiers></stage6>
</opencv_storage>
